{
    "data": {
        "n_iter": 300,
        "tol": 0.001,
        "alpha_1": 1e-06,
        "alpha_2": 1e-06,
        "lambda_1": 1e-06,
        "lambda_2": 1e-06,
        "alpha_init": null,
        "lambda_init": null,
        "compute_score": false,
        "fit_intercept": true,
        "copy_X": true,
        "verbose": false,
        "n_features_in_": 10,
        "X_offset_": [
            0.00039047198185187474,
            -0.00014309199603861062,
            0.0004729050423879101,
            0.00031769088082990975,
            -0.0005321043488653789,
            -0.000540281996323959,
            -0.0005080203823721925,
            9.749742869583833e-05,
            0.00016354453731930825,
            -0.0004691415082391016
        ],
        "X_scale_": [
            1.0,
            1.0,
            1.0,
            1.0,
            1.0,
            1.0,
            1.0,
            1.0,
            1.0,
            1.0
        ],
        "scores_": [],
        "n_iter_": 10,
        "alpha_": 0.00033567214754955896,
        "lambda_": 1.1696814565888858e-05,
        "coef_": [
            6.260169432328754,
            -223.51864434743877,
            504.4898155237174,
            317.6826922409544,
            -183.93709375460858,
            -3.0140347144499344,
            -166.81028226122402,
            117.74970819732141,
            490.6339122980116,
            85.56330705023953
        ],
        "sigma_": [
            [
                3579.602330752307,
                -360.00990476089714,
                -39.833887053829145,
                -677.6426736494097,
                -192.69161195980587,
                -333.1369639704782,
                -291.5207855281649,
                166.8639609758337,
                -416.48851363073044,
                -487.84362180798183
            ],
            [
                -360.00990476089686,
                3738.821765173381,
                544.655627817642,
                -674.7534735548464,
                494.03892752340954,
                -298.82757068683424,
                902.917044082385,
                -682.3225387742524,
                305.1778851029596,
                -257.3341683192198
            ],
            [
                -39.83388705382913,
                544.6556278176421,
                4338.24999893544,
                -967.992302745072,
                366.5816726368117,
                -714.3457193814772,
                902.2808250243974,
                -17.853540520319132,
                -865.0410004760379,
                -616.8235023579258
            ],
            [
                -677.6426736494096,
                -674.7534735548462,
                -967.9923027450723,
                4204.47184045613,
                -351.55865308243597,
                97.58076887959795,
                16.213647168832498,
                605.3948813145282,
                -778.2934065916294,
                -709.062846767269
            ],
            [
                -192.69161195980578,
                494.03892752340954,
                366.58167263681156,
                -351.558653082436,
                35727.450648570455,
                -26540.29423432095,
                -15225.494106017897,
                -5527.399988117267,
                -12198.04092770419,
                -124.95284890762083
            ],
            [
                -333.1369639704781,
                -298.8275706868342,
                -714.3457193814772,
                97.58076887959798,
                -26540.29423432095,
                26727.310400999704,
                7445.10478909175,
                -3536.960212881747,
                10440.664494101131,
                -37.504835508766185
            ],
            [
                -291.52078552816477,
                902.917044082385,
                902.2808250243974,
                16.21364716883258,
                -15225.4941060179,
                7445.104789091751,
                15547.2038315758,
                11175.055399649176,
                4141.551253444934,
                -42.36715192288026
            ],
            [
                166.8639609758336,
                -682.3225387742525,
                -17.853540520319097,
                605.3948813145282,
                -5527.399988117267,
                -3536.9602128817464,
                11175.055399649176,
                17732.9762426958,
                -2377.7448150592045,
                -628.0335721125343
            ],
            [
                -416.4885136307306,
                305.1778851029597,
                -865.0410004760382,
                -778.2934065916294,
                -12198.04092770419,
                10440.664494101131,
                4141.551253444934,
                -2377.7448150592045,
                9938.406157954483,
                -834.1616253656699
            ],
            [
                -487.8436218079817,
                -257.33416831921977,
                -616.8235023579258,
                -709.0628467672691,
                -124.9528489076208,
                -37.50483550876613,
                -42.36715192288027,
                -628.0335721125343,
                -834.16162536567,
                4391.940199555901
            ]
        ],
        "intercept_": 152.75280574943835
    },
    "sklearn_version": "1.2.0",
    "pymilo_version": "0.1",
    "model_type": "Unknown-Model"
}